digraph Tree {
node [shape=box, style="filled, rounded", color="black", fontname=helvetica] ;
edge [fontname=helvetica] ;
0 [label="X[1] <= 44.5\nentropy = 0.81\nsamples = 15556\nvalue = [11714, 3842]", fillcolor="#eeaa7a"] ;
1 [label="X[0] <= 10.5\nentropy = 1.0\nsamples = 3872\nvalue = [1873, 1999]", fillcolor="#f3f9fd"] ;
0 -> 1 [labeldistance=2.5, labelangle=45, headlabel="True"] ;
2 [label="X[0] <= 6.5\nentropy = 0.98\nsamples = 2664\nvalue = [1567, 1097]", fillcolor="#f7d9c4"] ;
1 -> 2 ;
3 [label="X[1] <= 39.5\nentropy = 0.85\nsamples = 781\nvalue = [566, 215]", fillcolor="#efb184"] ;
2 -> 3 ;
4 [label="X[0] <= 4.5\nentropy = 0.92\nsamples = 439\nvalue = [290, 149]", fillcolor="#f2c29f"] ;
3 -> 4 ;
5 [label="entropy = 0.79\nsamples = 115\nvalue = [88, 27]", fillcolor="#eda876"] ;
4 -> 5 ;
6 [label="entropy = 0.96\nsamples = 324\nvalue = [202, 122]", fillcolor="#f5cdb1"] ;
4 -> 6 ;
7 [label="X[0] <= 2.5\nentropy = 0.71\nsamples = 342\nvalue = [276, 66]", fillcolor="#eb9f68"] ;
3 -> 7 ;
8 [label="entropy = 0.0\nsamples = 15\nvalue = [15, 0]", fillcolor="#e58139"] ;
7 -> 8 ;
9 [label="entropy = 0.73\nsamples = 327\nvalue = [261, 66]", fillcolor="#eca16b"] ;
7 -> 9 ;
10 [label="X[1] <= 39.5\nentropy = 1.0\nsamples = 1883\nvalue = [1001, 882]", fillcolor="#fcf0e7"] ;
2 -> 10 ;
11 [label="X[1] <= 19.5\nentropy = 1.0\nsamples = 1162\nvalue = [543, 619]", fillcolor="#e7f3fc"] ;
10 -> 11 ;
12 [label="entropy = 0.0\nsamples = 7\nvalue = [7, 0]", fillcolor="#e58139"] ;
11 -> 12 ;
13 [label="entropy = 1.0\nsamples = 1155\nvalue = [536, 619]", fillcolor="#e4f2fc"] ;
11 -> 13 ;
14 [label="X[0] <= 8.36\nentropy = 0.95\nsamples = 721\nvalue = [458, 263]", fillcolor="#f4c9ab"] ;
10 -> 14 ;
15 [label="entropy = 0.88\nsamples = 324\nvalue = [228, 96]", fillcolor="#f0b68c"] ;
14 -> 15 ;
16 [label="entropy = 0.98\nsamples = 397\nvalue = [230, 167]", fillcolor="#f8dcc9"] ;
14 -> 16 ;
17 [label="X[0] <= 14.5\nentropy = 0.82\nsamples = 1208\nvalue = [306, 902]", fillcolor="#7cbeee"] ;
1 -> 17 ;
18 [label="X[1] <= 39.5\nentropy = 0.91\nsamples = 843\nvalue = [278, 565]", fillcolor="#9acdf2"] ;
17 -> 18 ;
19 [label="X[0] <= 13.5\nentropy = 0.83\nsamples = 538\nvalue = [140, 398]", fillcolor="#7fbfee"] ;
18 -> 19 ;
20 [label="entropy = 0.85\nsamples = 453\nvalue = [126, 327]", fillcolor="#85c3ef"] ;
19 -> 20 ;
21 [label="entropy = 0.65\nsamples = 85\nvalue = [14, 71]", fillcolor="#60b0ea"] ;
19 -> 21 ;
22 [label="X[3] <= 14053.35\nentropy = 0.99\nsamples = 305\nvalue = [138, 167]", fillcolor="#ddeefa"] ;
18 -> 22 ;
23 [label="entropy = 1.0\nsamples = 295\nvalue = [137, 158]", fillcolor="#e5f2fc"] ;
22 -> 23 ;
24 [label="entropy = 0.47\nsamples = 10\nvalue = [1, 9]", fillcolor="#4fa8e8"] ;
22 -> 24 ;
25 [label="X[0] <= 18.5\nentropy = 0.39\nsamples = 365\nvalue = [28, 337]", fillcolor="#49a5e7"] ;
17 -> 25 ;
26 [label="X[1] <= 39.5\nentropy = 0.51\nsamples = 244\nvalue = [28, 216]", fillcolor="#53aae8"] ;
25 -> 26 ;
27 [label="entropy = 0.39\nsamples = 170\nvalue = [13, 157]", fillcolor="#49a5e7"] ;
26 -> 27 ;
28 [label="entropy = 0.73\nsamples = 74\nvalue = [15, 59]", fillcolor="#6bb6ec"] ;
26 -> 28 ;
29 [label="entropy = 0.0\nsamples = 121\nvalue = [0, 121]", fillcolor="#399de5"] ;
25 -> 29 ;
30 [label="X[0] <= 12.5\nentropy = 0.63\nsamples = 11684\nvalue = [9841, 1843]", fillcolor="#ea995e"] ;
0 -> 30 [labeldistance=2.5, labelangle=-45, headlabel="False"] ;
31 [label="X[0] <= 7.5\nentropy = 0.55\nsamples = 10555\nvalue = [9213, 1342]", fillcolor="#e99356"] ;
30 -> 31 ;
32 [label="X[0] <= 4.5\nentropy = 0.38\nsamples = 4671\nvalue = [4329, 342]", fillcolor="#e78b49"] ;
31 -> 32 ;
33 [label="X[2] <= 52.5\nentropy = 0.24\nsamples = 1030\nvalue = [990, 40]", fillcolor="#e68641"] ;
32 -> 33 ;
34 [label="entropy = 0.22\nsamples = 998\nvalue = [963, 35]", fillcolor="#e68640"] ;
33 -> 34 ;
35 [label="entropy = 0.63\nsamples = 32\nvalue = [27, 5]", fillcolor="#ea985e"] ;
33 -> 35 ;
36 [label="X[1] <= 45.5\nentropy = 0.41\nsamples = 3641\nvalue = [3339, 302]", fillcolor="#e78c4b"] ;
32 -> 36 ;
37 [label="entropy = 0.0\nsamples = 119\nvalue = [119, 0]", fillcolor="#e58139"] ;
36 -> 37 ;
38 [label="entropy = 0.42\nsamples = 3522\nvalue = [3220, 302]", fillcolor="#e78d4c"] ;
36 -> 38 ;
39 [label="X[0] <= 9.5\nentropy = 0.66\nsamples = 5884\nvalue = [4884, 1000]", fillcolor="#ea9b62"] ;
31 -> 39 ;
40 [label="X[1] <= 45.5\nentropy = 0.6\nsamples = 3331\nvalue = [2850, 481]", fillcolor="#e9965a"] ;
39 -> 40 ;
41 [label="entropy = 0.1\nsamples = 78\nvalue = [77, 1]", fillcolor="#e5833c"] ;
40 -> 41 ;
42 [label="entropy = 0.6\nsamples = 3253\nvalue = [2773, 480]", fillcolor="#ea975b"] ;
40 -> 42 ;
43 [label="X[3] <= 45.17\nentropy = 0.73\nsamples = 2553\nvalue = [2034, 519]", fillcolor="#eca16c"] ;
39 -> 43 ;
44 [label="entropy = 0.8\nsamples = 591\nvalue = [446, 145]", fillcolor="#edaa79"] ;
43 -> 44 ;
45 [label="entropy = 0.7\nsamples = 1962\nvalue = [1588, 374]", fillcolor="#eb9f68"] ;
43 -> 45 ;
46 [label="X[0] <= 17.5\nentropy = 0.99\nsamples = 1129\nvalue = [628, 501]", fillcolor="#fae6d7"] ;
30 -> 46 ;
47 [label="X[0] <= 15.5\nentropy = 0.97\nsamples = 1030\nvalue = [611, 419]", fillcolor="#f7d7c1"] ;
46 -> 47 ;
48 [label="X[3] <= 2000.01\nentropy = 0.96\nsamples = 856\nvalue = [531, 325]", fillcolor="#f5ceb2"] ;
47 -> 48 ;
49 [label="entropy = 0.99\nsamples = 368\nvalue = [204, 164]", fillcolor="#fae6d8"] ;
48 -> 49 ;
50 [label="entropy = 0.91\nsamples = 488\nvalue = [327, 161]", fillcolor="#f2bf9a"] ;
48 -> 50 ;
51 [label="X[1] <= 59.5\nentropy = 1.0\nsamples = 174\nvalue = [80, 94]", fillcolor="#e2f0fb"] ;
47 -> 51 ;
52 [label="entropy = 0.95\nsamples = 110\nvalue = [41, 69]", fillcolor="#afd7f4"] ;
51 -> 52 ;
53 [label="entropy = 0.97\nsamples = 64\nvalue = [39, 25]", fillcolor="#f6d2b8"] ;
51 -> 53 ;
54 [label="X[2] <= 20.5\nentropy = 0.66\nsamples = 99\nvalue = [17, 82]", fillcolor="#62b1ea"] ;
46 -> 54 ;
55 [label="X[0] <= 19.5\nentropy = 0.93\nsamples = 40\nvalue = [14, 26]", fillcolor="#a4d2f3"] ;
54 -> 55 ;
56 [label="entropy = 0.99\nsamples = 29\nvalue = [13, 16]", fillcolor="#daedfa"] ;
55 -> 56 ;
57 [label="entropy = 0.44\nsamples = 11\nvalue = [1, 10]", fillcolor="#4da7e8"] ;
55 -> 57 ;
58 [label="X[1] <= 53.4\nentropy = 0.29\nsamples = 59\nvalue = [3, 56]", fillcolor="#44a2e6"] ;
54 -> 58 ;
59 [label="entropy = 0.0\nsamples = 28\nvalue = [0, 28]", fillcolor="#399de5"] ;
58 -> 59 ;
60 [label="entropy = 0.46\nsamples = 31\nvalue = [3, 28]", fillcolor="#4ea8e8"] ;
58 -> 60 ;
}